Language model created by QuickLM on Tue Jan  8 21:35:48 EST 2019
Copyright (c) 1996-2010 Carnegie Mellon University and Alexander I. Rudnicky

The model is in standard ARPA format, designed by Doug Paul while he was at MITRE.

The code that was used to produce this language model is available in Open Source.
Please visit http://www.speech.cs.cmu.edu/tools/ for more information

The (fixed) discount mass is 0.5. The backoffs are computed using the ratio method.
This model based on a corpus of 26 sentences and 27 words

\data\
ngram 1=27
ngram 2=50
ngram 3=25

\1-grams:
-0.7782 </s> -0.3010
-0.7782 <s> -0.2218
-2.1931 ALEXA -0.2218
-2.1931 下一首 -0.2218
-2.1931 停止 -0.2218
-2.1931 关闭 -0.2218
-2.1931 叮咚 -0.2218
-2.1931 同学 -0.2218
-1.8921 听音乐 -0.2218
-2.1931 图灵 -0.2218
-2.1931 天气 -0.2218
-2.1931 天猫 -0.2218
-2.1931 天猫同学 -0.2218
-2.1931 天猫精灵 -0.2218
-2.1931 小度 -0.2218
-2.1931 小度同学 -0.2218
-2.1931 小桑 -0.2218
-2.1931 小爱 -0.2218
-2.1931 小爱同学 -0.2218
-2.1931 打开 -0.2218
-2.1931 播放音乐 -0.2218
-2.1931 星座 -0.2218
-2.1931 暂停 -0.2218
-2.1931 笑话 -0.2218
-2.1931 继续 -0.2218
-2.1931 讲故事 -0.2218
-2.1931 音量 -0.2218

\2-grams:
-1.7160 <s> ALEXA 0.0000
-1.7160 <s> 下一首 0.0000
-1.7160 <s> 停止 0.0000
-1.7160 <s> 关闭 0.0000
-1.7160 <s> 叮咚 0.0000
-1.7160 <s> 同学 0.0000
-1.4150 <s> 听音乐 0.0000
-1.7160 <s> 图灵 0.0000
-1.7160 <s> 天气 0.0000
-1.7160 <s> 天猫 0.0000
-1.7160 <s> 天猫同学 0.0000
-1.7160 <s> 天猫精灵 0.0000
-1.7160 <s> 小度 0.0000
-1.7160 <s> 小度同学 0.0000
-1.7160 <s> 小桑 0.0000
-1.7160 <s> 小爱 0.0000
-1.7160 <s> 小爱同学 0.0000
-1.7160 <s> 打开 0.0000
-1.7160 <s> 播放音乐 0.0000
-1.7160 <s> 星座 0.0000
-1.7160 <s> 暂停 0.0000
-1.7160 <s> 笑话 0.0000
-1.7160 <s> 继续 0.0000
-1.7160 <s> 讲故事 0.0000
-1.7160 <s> 音量 0.0000
-0.3010 ALEXA </s> -0.3010
-0.3010 下一首 </s> -0.3010
-0.3010 停止 </s> -0.3010
-0.3010 关闭 </s> -0.3010
-0.3010 叮咚 </s> -0.3010
-0.3010 同学 </s> -0.3010
-0.3010 听音乐 </s> -0.3010
-0.3010 图灵 </s> -0.3010
-0.3010 天气 </s> -0.3010
-0.3010 天猫 </s> -0.3010
-0.3010 天猫同学 </s> -0.3010
-0.3010 天猫精灵 </s> -0.3010
-0.3010 小度 </s> -0.3010
-0.3010 小度同学 </s> -0.3010
-0.3010 小桑 </s> -0.3010
-0.3010 小爱 </s> -0.3010
-0.3010 小爱同学 </s> -0.3010
-0.3010 打开 </s> -0.3010
-0.3010 播放音乐 </s> -0.3010
-0.3010 星座 </s> -0.3010
-0.3010 暂停 </s> -0.3010
-0.3010 笑话 </s> -0.3010
-0.3010 继续 </s> -0.3010
-0.3010 讲故事 </s> -0.3010
-0.3010 音量 </s> -0.3010

\3-grams:
-0.3010 <s> ALEXA </s>
-0.3010 <s> 下一首 </s>
-0.3010 <s> 停止 </s>
-0.3010 <s> 关闭 </s>
-0.3010 <s> 叮咚 </s>
-0.3010 <s> 同学 </s>
-0.3010 <s> 听音乐 </s>
-0.3010 <s> 图灵 </s>
-0.3010 <s> 天气 </s>
-0.3010 <s> 天猫 </s>
-0.3010 <s> 天猫同学 </s>
-0.3010 <s> 天猫精灵 </s>
-0.3010 <s> 小度 </s>
-0.3010 <s> 小度同学 </s>
-0.3010 <s> 小桑 </s>
-0.3010 <s> 小爱 </s>
-0.3010 <s> 小爱同学 </s>
-0.3010 <s> 打开 </s>
-0.3010 <s> 播放音乐 </s>
-0.3010 <s> 星座 </s>
-0.3010 <s> 暂停 </s>
-0.3010 <s> 笑话 </s>
-0.3010 <s> 继续 </s>
-0.3010 <s> 讲故事 </s>
-0.3010 <s> 音量 </s>

\end\
